digraph Tree {
node [shape=box, style="filled, rounded", color="black", fontname=helvetica] ;
edge [fontname=helvetica] ;
0 [label="x0_Arizona <= 0.5\ngini = 0.47\nsamples = 709\nvalue = [416, 688]\nclass = Out", fillcolor="#399de565"] ;
1 [label="x1_Pac-12 <= 0.5\ngini = 0.49\nsamples = 626\nvalue = [416, 568]\nclass = Out", fillcolor="#399de544"] ;
0 -> 1 [labeldistance=2.5, labelangle=45, headlabel="True"] ;
2 [label="x0_Alabama <= 0.5\ngini = 0.5\nsamples = 449\nvalue = [345, 365]\nclass = Out", fillcolor="#399de50e"] ;
1 -> 2 ;
3 [label="x0_Xavier <= 0.5\ngini = 0.5\nsamples = 425\nvalue = [345, 328]\nclass = In", fillcolor="#e581390d"] ;
2 -> 3 ;
4 [label="x1_AAC <= 0.5\ngini = 0.5\nsamples = 393\nvalue = [294, 328]\nclass = Out", fillcolor="#399de51a"] ;
3 -> 4 ;
5 [label="x0_Texas <= 0.5\ngini = 0.49\nsamples = 371\nvalue = [256, 328]\nclass = Out", fillcolor="#399de538"] ;
4 -> 5 ;
6 [label="x0_Utah <= 0.5\ngini = 0.5\nsamples = 354\nvalue = [256, 307]\nclass = Out", fillcolor="#399de52a"] ;
5 -> 6 ;
7 [label="x0_Duke <= 0.5\ngini = 0.49\nsamples = 333\nvalue = [225, 307]\nclass = Out", fillcolor="#399de544"] ;
6 -> 7 ;
8 [label="x0_Oregon <= 0.5\ngini = 0.49\nsamples = 313\nvalue = [225, 277]\nclass = Out", fillcolor="#399de530"] ;
7 -> 8 ;
9 [label="x0_Indiana <= 0.5\ngini = 0.5\nsamples = 295\nvalue = [225, 249]\nclass = Out", fillcolor="#399de519"] ;
8 -> 9 ;
10 [label="x0_Gonzaga <= 0.5\ngini = 0.48\nsamples = 264\nvalue = [168, 249]\nclass = Out", fillcolor="#399de553"] ;
9 -> 10 ;
11 [label="division <= 0.22\ngini = 0.47\nsamples = 253\nvalue = [148, 249]\nclass = Out", fillcolor="#399de567"] ;
10 -> 11 ;
12 [label="fta <= 1.88\ngini = 0.35\nsamples = 165\nvalue = [59, 198]\nclass = Out", fillcolor="#399de5b3"] ;
11 -> 12 ;
13 [label="oreb <= -0.84\ngini = 0.28\nsamples = 154\nvalue = [40, 197]\nclass = Out", fillcolor="#399de5cb"] ;
12 -> 13 ;
14 [label="fga <= -0.01\ngini = 0.47\nsamples = 35\nvalue = [20, 32]\nclass = Out", fillcolor="#399de560"] ;
13 -> 14 ;
15 [label="fga <= -0.78\ngini = 0.5\nsamples = 17\nvalue = [15, 15]\nclass = In", fillcolor="#e5813900"] ;
14 -> 15 ;
16 [label="x0_UConn <= 0.5\ngini = 0.28\nsamples = 4\nvalue = [1, 5]\nclass = Out", fillcolor="#399de5cc"] ;
15 -> 16 ;
17 [label="gini = 0.0\nsamples = 3\nvalue = [0, 5]\nclass = Out", fillcolor="#399de5ff"] ;
16 -> 17 ;
18 [label="gini = 0.0\nsamples = 1\nvalue = [1, 0]\nclass = In", fillcolor="#e58139ff"] ;
16 -> 18 ;
19 [label="fta <= -0.0\ngini = 0.49\nsamples = 13\nvalue = [14, 10]\nclass = In", fillcolor="#e5813949"] ;
15 -> 19 ;
20 [label="fga <= -0.4\ngini = 0.47\nsamples = 7\nvalue = [5, 8]\nclass = Out", fillcolor="#399de560"] ;
19 -> 20 ;
21 [label="x0_UConn <= 0.5\ngini = 0.32\nsamples = 3\nvalue = [1, 4]\nclass = Out", fillcolor="#399de5bf"] ;
20 -> 21 ;
22 [label="gini = 0.0\nsamples = 2\nvalue = [0, 4]\nclass = Out", fillcolor="#399de5ff"] ;
21 -> 22 ;
23 [label="gini = 0.0\nsamples = 1\nvalue = [1, 0]\nclass = In", fillcolor="#e58139ff"] ;
21 -> 23 ;
24 [label="x0_UConn <= 0.5\ngini = 0.5\nsamples = 4\nvalue = [4, 4]\nclass = In", fillcolor="#e5813900"] ;
20 -> 24 ;
25 [label="gini = 0.0\nsamples = 2\nvalue = [0, 4]\nclass = Out", fillcolor="#399de5ff"] ;
24 -> 25 ;
26 [label="gini = 0.0\nsamples = 2\nvalue = [4, 0]\nclass = In", fillcolor="#e58139ff"] ;
24 -> 26 ;
27 [label="x0_LSU <= 0.5\ngini = 0.3\nsamples = 6\nvalue = [9, 2]\nclass = In", fillcolor="#e58139c6"] ;
19 -> 27 ;
28 [label="x2_C <= 0.5\ngini = 0.41\nsamples = 4\nvalue = [5, 2]\nclass = In", fillcolor="#e5813999"] ;
27 -> 28 ;
29 [label="gini = 0.0\nsamples = 1\nvalue = [0, 1]\nclass = Out", fillcolor="#399de5ff"] ;
28 -> 29 ;
30 [label="x1_MWC <= 0.5\ngini = 0.28\nsamples = 3\nvalue = [5, 1]\nclass = In", fillcolor="#e58139cc"] ;
28 -> 30 ;
31 [label="gini = 0.0\nsamples = 2\nvalue = [5, 0]\nclass = In", fillcolor="#e58139ff"] ;
30 -> 31 ;
32 [label="gini = 0.0\nsamples = 1\nvalue = [0, 1]\nclass = Out", fillcolor="#399de5ff"] ;
30 -> 32 ;
33 [label="gini = 0.0\nsamples = 2\nvalue = [4, 0]\nclass = In", fillcolor="#e58139ff"] ;
27 -> 33 ;
34 [label="division <= -1.09\ngini = 0.35\nsamples = 18\nvalue = [5, 17]\nclass = Out", fillcolor="#399de5b4"] ;
14 -> 34 ;
35 [label="gini = 0.0\nsamples = 5\nvalue = [5, 0]\nclass = In", fillcolor="#e58139ff"] ;
34 -> 35 ;
36 [label="gini = 0.0\nsamples = 13\nvalue = [0, 17]\nclass = Out", fillcolor="#399de5ff"] ;
34 -> 36 ;
37 [label="x0_UConn <= 0.5\ngini = 0.19\nsamples = 119\nvalue = [20, 165]\nclass = Out", fillcolor="#399de5e0"] ;
13 -> 37 ;
38 [label="x0_LSU <= 0.5\ngini = 0.1\nsamples = 87\nvalue = [7, 128]\nclass = Out", fillcolor="#399de5f1"] ;
37 -> 38 ;
39 [label="gini = 0.0\nsamples = 68\nvalue = [0, 106]\nclass = Out", fillcolor="#399de5ff"] ;
38 -> 39 ;
40 [label="ast <= -0.23\ngini = 0.37\nsamples = 19\nvalue = [7, 22]\nclass = Out", fillcolor="#399de5ae"] ;
38 -> 40 ;
41 [label="dreb <= -0.65\ngini = 0.5\nsamples = 10\nvalue = [5, 6]\nclass = Out", fillcolor="#399de52a"] ;
40 -> 41 ;
42 [label="gini = 0.0\nsamples = 5\nvalue = [5, 0]\nclass = In", fillcolor="#e58139ff"] ;
41 -> 42 ;
43 [label="gini = 0.0\nsamples = 5\nvalue = [0, 6]\nclass = Out", fillcolor="#399de5ff"] ;
41 -> 43 ;
44 [label="x2_C <= 0.5\ngini = 0.2\nsamples = 9\nvalue = [2, 16]\nclass = Out", fillcolor="#399de5df"] ;
40 -> 44 ;
45 [label="gini = 0.0\nsamples = 1\nvalue = [2, 0]\nclass = In", fillcolor="#e58139ff"] ;
44 -> 45 ;
46 [label="gini = 0.0\nsamples = 8\nvalue = [0, 16]\nclass = Out", fillcolor="#399de5ff"] ;
44 -> 46 ;
47 [label="ast <= 0.56\ngini = 0.38\nsamples = 32\nvalue = [13, 37]\nclass = Out", fillcolor="#399de5a5"] ;
37 -> 47 ;
48 [label="oreb <= -0.28\ngini = 0.1\nsamples = 23\nvalue = [2, 35]\nclass = Out", fillcolor="#399de5f0"] ;
47 -> 48 ;
49 [label="ftm <= 0.34\ngini = 0.24\nsamples = 11\nvalue = [2, 12]\nclass = Out", fillcolor="#399de5d4"] ;
48 -> 49 ;
50 [label="x2_C <= 0.5\ngini = 0.3\nsamples = 9\nvalue = [2, 9]\nclass = Out", fillcolor="#399de5c6"] ;
49 -> 50 ;
51 [label="gini = 0.0\nsamples = 7\nvalue = [0, 9]\nclass = Out", fillcolor="#399de5ff"] ;
50 -> 51 ;
52 [label="gini = 0.0\nsamples = 2\nvalue = [2, 0]\nclass = In", fillcolor="#e58139ff"] ;
50 -> 52 ;
53 [label="gini = 0.0\nsamples = 2\nvalue = [0, 3]\nclass = Out", fillcolor="#399de5ff"] ;
49 -> 53 ;
54 [label="gini = 0.0\nsamples = 12\nvalue = [0, 23]\nclass = Out", fillcolor="#399de5ff"] ;
48 -> 54 ;
55 [label="tf <= -0.82\ngini = 0.26\nsamples = 9\nvalue = [11, 2]\nclass = In", fillcolor="#e58139d1"] ;
47 -> 55 ;
56 [label="dreb <= -0.35\ngini = 0.48\nsamples = 3\nvalue = [3, 2]\nclass = In", fillcolor="#e5813955"] ;
55 -> 56 ;
57 [label="gini = 0.0\nsamples = 1\nvalue = [0, 2]\nclass = Out", fillcolor="#399de5ff"] ;
56 -> 57 ;
58 [label="gini = 0.0\nsamples = 2\nvalue = [3, 0]\nclass = In", fillcolor="#e58139ff"] ;
56 -> 58 ;
59 [label="gini = 0.0\nsamples = 6\nvalue = [8, 0]\nclass = In", fillcolor="#e58139ff"] ;
55 -> 59 ;
60 [label="x0_LSU <= 0.5\ngini = 0.09\nsamples = 11\nvalue = [19, 1]\nclass = In", fillcolor="#e58139f2"] ;
12 -> 60 ;
61 [label="gini = 0.0\nsamples = 1\nvalue = [0, 1]\nclass = Out", fillcolor="#399de5ff"] ;
60 -> 61 ;
62 [label="gini = 0.0\nsamples = 10\nvalue = [19, 0]\nclass = In", fillcolor="#e58139ff"] ;
60 -> 62 ;
63 [label="division <= 1.2\ngini = 0.46\nsamples = 88\nvalue = [89, 51]\nclass = In", fillcolor="#e581396d"] ;
11 -> 63 ;
64 [label="gini = 0.0\nsamples = 58\nvalue = [89, 0]\nclass = In", fillcolor="#e58139ff"] ;
63 -> 64 ;
65 [label="gini = 0.0\nsamples = 30\nvalue = [0, 51]\nclass = Out", fillcolor="#399de5ff"] ;
63 -> 65 ;
66 [label="gini = 0.0\nsamples = 11\nvalue = [20, 0]\nclass = In", fillcolor="#e58139ff"] ;
10 -> 66 ;
67 [label="gini = 0.0\nsamples = 31\nvalue = [57, 0]\nclass = In", fillcolor="#e58139ff"] ;
9 -> 67 ;
68 [label="gini = 0.0\nsamples = 18\nvalue = [0, 28]\nclass = Out", fillcolor="#399de5ff"] ;
8 -> 68 ;
69 [label="gini = 0.0\nsamples = 20\nvalue = [0, 30]\nclass = Out", fillcolor="#399de5ff"] ;
7 -> 69 ;
70 [label="gini = 0.0\nsamples = 21\nvalue = [31, 0]\nclass = In", fillcolor="#e58139ff"] ;
6 -> 70 ;
71 [label="gini = 0.0\nsamples = 17\nvalue = [0, 21]\nclass = Out", fillcolor="#399de5ff"] ;
5 -> 71 ;
72 [label="gini = 0.0\nsamples = 22\nvalue = [38, 0]\nclass = In", fillcolor="#e58139ff"] ;
4 -> 72 ;
73 [label="gini = 0.0\nsamples = 32\nvalue = [51, 0]\nclass = In", fillcolor="#e58139ff"] ;
3 -> 73 ;
74 [label="gini = 0.0\nsamples = 24\nvalue = [0, 37]\nclass = Out", fillcolor="#399de5ff"] ;
2 -> 74 ;
75 [label="x2_F <= 0.5\ngini = 0.38\nsamples = 177\nvalue = [71, 203]\nclass = Out", fillcolor="#399de5a6"] ;
1 -> 75 ;
76 [label="gini = 0.0\nsamples = 69\nvalue = [0, 113]\nclass = Out", fillcolor="#399de5ff"] ;
75 -> 76 ;
77 [label="x0_Kentucky <= 0.5\ngini = 0.49\nsamples = 108\nvalue = [71, 90]\nclass = Out", fillcolor="#399de536"] ;
75 -> 77 ;
78 [label="division <= -1.09\ngini = 0.44\nsamples = 93\nvalue = [45, 90]\nclass = Out", fillcolor="#399de57f"] ;
77 -> 78 ;
79 [label="gini = 0.0\nsamples = 18\nvalue = [24, 0]\nclass = In", fillcolor="#e58139ff"] ;
78 -> 79 ;
80 [label="x0_Kansas <= 0.5\ngini = 0.31\nsamples = 75\nvalue = [21, 90]\nclass = Out", fillcolor="#399de5c4"] ;
78 -> 80 ;
81 [label="gini = 0.0\nsamples = 15\nvalue = [21, 0]\nclass = In", fillcolor="#e58139ff"] ;
80 -> 81 ;
82 [label="gini = 0.0\nsamples = 60\nvalue = [0, 90]\nclass = Out", fillcolor="#399de5ff"] ;
80 -> 82 ;
83 [label="gini = 0.0\nsamples = 15\nvalue = [26, 0]\nclass = In", fillcolor="#e58139ff"] ;
77 -> 83 ;
84 [label="gini = 0.0\nsamples = 83\nvalue = [0, 120]\nclass = Out", fillcolor="#399de5ff"] ;
0 -> 84 [labeldistance=2.5, labelangle=-45, headlabel="False"] ;
}