digraph Tree {
node [shape=box, style="filled, rounded", color="black", fontname=helvetica] ;
edge [fontname=helvetica] ;
0 [label="x0_Kansas <= 0.5\ngini = 0.46\nsamples = 687\nvalue = [390, 714]\nclass = Out", fillcolor="#399de574"] ;
1 [label="x1_Ivy League <= 0.5\ngini = 0.48\nsamples = 553\nvalue = [356, 521]\nclass = Out", fillcolor="#399de551"] ;
0 -> 1 [labeldistance=2.5, labelangle=45, headlabel="True"] ;
2 [label="x2_G <= 0.5\ngini = 0.46\nsamples = 487\nvalue = [285, 491]\nclass = Out", fillcolor="#399de56b"] ;
1 -> 2 ;
3 [label="x1_MWC <= 0.5\ngini = 0.44\nsamples = 450\nvalue = [237, 491]\nclass = Out", fillcolor="#399de584"] ;
2 -> 3 ;
4 [label="division <= 0.55\ngini = 0.49\nsamples = 362\nvalue = [237, 327]\nclass = Out", fillcolor="#399de546"] ;
3 -> 4 ;
5 [label="ftm <= 1.36\ngini = 0.48\nsamples = 220\nvalue = [208, 137]\nclass = In", fillcolor="#e5813957"] ;
4 -> 5 ;
6 [label="x0_Arizona <= 0.5\ngini = 0.42\nsamples = 185\nvalue = [205, 90]\nclass = In", fillcolor="#e581398f"] ;
5 -> 6 ;
7 [label="x0_Indiana <= 0.5\ngini = 0.33\nsamples = 160\nvalue = [205, 54]\nclass = In", fillcolor="#e58139bc"] ;
6 -> 7 ;
8 [label="pts <= -0.5\ngini = 0.39\nsamples = 127\nvalue = [153, 54]\nclass = In", fillcolor="#e58139a5"] ;
7 -> 8 ;
9 [label="stl <= -0.15\ngini = 0.23\nsamples = 45\nvalue = [66, 10]\nclass = In", fillcolor="#e58139d8"] ;
8 -> 9 ;
10 [label="x0_Memphis <= 0.5\ngini = 0.12\nsamples = 34\nvalue = [56, 4]\nclass = In", fillcolor="#e58139ed"] ;
9 -> 10 ;
11 [label="oreb <= -0.84\ngini = 0.18\nsamples = 23\nvalue = [36, 4]\nclass = In", fillcolor="#e58139e3"] ;
10 -> 11 ;
12 [label="x0_Utah <= 0.5\ngini = 0.06\nsamples = 17\nvalue = [32, 1]\nclass = In", fillcolor="#e58139f7"] ;
11 -> 12 ;
13 [label="reb <= 0.2\ngini = 0.08\nsamples = 12\nvalue = [24, 1]\nclass = In", fillcolor="#e58139f4"] ;
12 -> 13 ;
14 [label="gini = 0.0\nsamples = 11\nvalue = [24, 0]\nclass = In", fillcolor="#e58139ff"] ;
13 -> 14 ;
15 [label="gini = 0.0\nsamples = 1\nvalue = [0, 1]\nclass = Out", fillcolor="#399de5ff"] ;
13 -> 15 ;
16 [label="gini = 0.0\nsamples = 5\nvalue = [8, 0]\nclass = In", fillcolor="#e58139ff"] ;
12 -> 16 ;
17 [label="x2_C <= 0.5\ngini = 0.49\nsamples = 6\nvalue = [4, 3]\nclass = In", fillcolor="#e5813940"] ;
11 -> 17 ;
18 [label="gini = 0.0\nsamples = 3\nvalue = [4, 0]\nclass = In", fillcolor="#e58139ff"] ;
17 -> 18 ;
19 [label="gini = 0.0\nsamples = 3\nvalue = [0, 3]\nclass = Out", fillcolor="#399de5ff"] ;
17 -> 19 ;
20 [label="gini = 0.0\nsamples = 11\nvalue = [20, 0]\nclass = In", fillcolor="#e58139ff"] ;
10 -> 20 ;
21 [label="x0_Memphis <= 0.5\ngini = 0.47\nsamples = 11\nvalue = [10, 6]\nclass = In", fillcolor="#e5813966"] ;
9 -> 21 ;
22 [label="oreb <= 0.01\ngini = 0.5\nsamples = 8\nvalue = [5, 6]\nclass = Out", fillcolor="#399de52a"] ;
21 -> 22 ;
23 [label="x2_F <= 0.5\ngini = 0.32\nsamples = 3\nvalue = [1, 4]\nclass = Out", fillcolor="#399de5bf"] ;
22 -> 23 ;
24 [label="gini = 0.0\nsamples = 2\nvalue = [0, 4]\nclass = Out", fillcolor="#399de5ff"] ;
23 -> 24 ;
25 [label="gini = 0.0\nsamples = 1\nvalue = [1, 0]\nclass = In", fillcolor="#e58139ff"] ;
23 -> 25 ;
26 [label="dreb <= -0.65\ngini = 0.44\nsamples = 5\nvalue = [4, 2]\nclass = In", fillcolor="#e581397f"] ;
22 -> 26 ;
27 [label="gini = 0.0\nsamples = 3\nvalue = [4, 0]\nclass = In", fillcolor="#e58139ff"] ;
26 -> 27 ;
28 [label="gini = 0.0\nsamples = 2\nvalue = [0, 2]\nclass = Out", fillcolor="#399de5ff"] ;
26 -> 28 ;
29 [label="gini = 0.0\nsamples = 3\nvalue = [5, 0]\nclass = In", fillcolor="#e58139ff"] ;
21 -> 29 ;
30 [label="x2_C <= 0.5\ngini = 0.45\nsamples = 82\nvalue = [87, 44]\nclass = In", fillcolor="#e581397e"] ;
8 -> 30 ;
31 [label="pts <= 2.67\ngini = 0.23\nsamples = 43\nvalue = [60, 9]\nclass = In", fillcolor="#e58139d9"] ;
30 -> 31 ;
32 [label="fga3 <= 0.91\ngini = 0.17\nsamples = 42\nvalue = [60, 6]\nclass = In", fillcolor="#e58139e6"] ;
31 -> 32 ;
33 [label="fga <= 1.93\ngini = 0.04\nsamples = 28\nvalue = [48, 1]\nclass = In", fillcolor="#e58139fa"] ;
32 -> 33 ;
34 [label="gini = 0.0\nsamples = 26\nvalue = [46, 0]\nclass = In", fillcolor="#e58139ff"] ;
33 -> 34 ;
35 [label="tf <= 0.18\ngini = 0.44\nsamples = 2\nvalue = [2, 1]\nclass = In", fillcolor="#e581397f"] ;
33 -> 35 ;
36 [label="gini = 0.0\nsamples = 1\nvalue = [0, 1]\nclass = Out", fillcolor="#399de5ff"] ;
35 -> 36 ;
37 [label="gini = 0.0\nsamples = 1\nvalue = [2, 0]\nclass = In", fillcolor="#e58139ff"] ;
35 -> 37 ;
38 [label="division <= -0.76\ngini = 0.42\nsamples = 14\nvalue = [12, 5]\nclass = In", fillcolor="#e5813995"] ;
32 -> 38 ;
39 [label="gini = 0.0\nsamples = 11\nvalue = [12, 0]\nclass = In", fillcolor="#e58139ff"] ;
38 -> 39 ;
40 [label="gini = 0.0\nsamples = 3\nvalue = [0, 5]\nclass = Out", fillcolor="#399de5ff"] ;
38 -> 40 ;
41 [label="gini = 0.0\nsamples = 1\nvalue = [0, 3]\nclass = Out", fillcolor="#399de5ff"] ;
31 -> 41 ;
42 [label="tf <= 0.51\ngini = 0.49\nsamples = 39\nvalue = [27, 35]\nclass = Out", fillcolor="#399de53a"] ;
30 -> 42 ;
43 [label="fga3 <= -0.24\ngini = 0.5\nsamples = 32\nvalue = [26, 27]\nclass = Out", fillcolor="#399de509"] ;
42 -> 43 ;
44 [label="x1_Big 12 <= 0.5\ngini = 0.46\nsamples = 14\nvalue = [9, 16]\nclass = Out", fillcolor="#399de570"] ;
43 -> 44 ;
45 [label="division <= 0.22\ngini = 0.32\nsamples = 11\nvalue = [4, 16]\nclass = Out", fillcolor="#399de5bf"] ;
44 -> 45 ;
46 [label="gini = 0.0\nsamples = 9\nvalue = [0, 16]\nclass = Out", fillcolor="#399de5ff"] ;
45 -> 46 ;
47 [label="gini = 0.0\nsamples = 2\nvalue = [4, 0]\nclass = In", fillcolor="#e58139ff"] ;
45 -> 47 ;
48 [label="gini = 0.0\nsamples = 3\nvalue = [5, 0]\nclass = In", fillcolor="#e58139ff"] ;
44 -> 48 ;
49 [label="x0_UCLA <= 0.5\ngini = 0.48\nsamples = 18\nvalue = [17, 11]\nclass = In", fillcolor="#e581395a"] ;
43 -> 49 ;
50 [label="x1_Big East <= 0.5\ngini = 0.31\nsamples = 13\nvalue = [17, 4]\nclass = In", fillcolor="#e58139c3"] ;
49 -> 50 ;
51 [label="gini = 0.0\nsamples = 10\nvalue = [17, 0]\nclass = In", fillcolor="#e58139ff"] ;
50 -> 51 ;
52 [label="gini = 0.0\nsamples = 3\nvalue = [0, 4]\nclass = Out", fillcolor="#399de5ff"] ;
50 -> 52 ;
53 [label="gini = 0.0\nsamples = 5\nvalue = [0, 7]\nclass = Out", fillcolor="#399de5ff"] ;
49 -> 53 ;
54 [label="x1_AAC <= 0.5\ngini = 0.2\nsamples = 7\nvalue = [1, 8]\nclass = Out", fillcolor="#399de5df"] ;
42 -> 54 ;
55 [label="gini = 0.0\nsamples = 6\nvalue = [0, 8]\nclass = Out", fillcolor="#399de5ff"] ;
54 -> 55 ;
56 [label="gini = 0.0\nsamples = 1\nvalue = [1, 0]\nclass = In", fillcolor="#e58139ff"] ;
54 -> 56 ;
57 [label="gini = 0.0\nsamples = 33\nvalue = [52, 0]\nclass = In", fillcolor="#e58139ff"] ;
7 -> 57 ;
58 [label="gini = 0.0\nsamples = 25\nvalue = [0, 36]\nclass = Out", fillcolor="#399de5ff"] ;
6 -> 58 ;
59 [label="x0_LSU <= 0.5\ngini = 0.11\nsamples = 35\nvalue = [3, 47]\nclass = Out", fillcolor="#399de5ef"] ;
5 -> 59 ;
60 [label="x2_C <= 0.5\ngini = 0.08\nsamples = 34\nvalue = [2, 47]\nclass = Out", fillcolor="#399de5f4"] ;
59 -> 60 ;
61 [label="gini = 0.0\nsamples = 25\nvalue = [0, 38]\nclass = Out", fillcolor="#399de5ff"] ;
60 -> 61 ;
62 [label="fga <= 1.16\ngini = 0.3\nsamples = 9\nvalue = [2, 9]\nclass = Out", fillcolor="#399de5c6"] ;
60 -> 62 ;
63 [label="gini = 0.0\nsamples = 6\nvalue = [0, 8]\nclass = Out", fillcolor="#399de5ff"] ;
62 -> 63 ;
64 [label="fta <= -0.19\ngini = 0.44\nsamples = 3\nvalue = [2, 1]\nclass = In", fillcolor="#e581397f"] ;
62 -> 64 ;
65 [label="gini = 0.0\nsamples = 1\nvalue = [0, 1]\nclass = Out", fillcolor="#399de5ff"] ;
64 -> 65 ;
66 [label="gini = 0.0\nsamples = 2\nvalue = [2, 0]\nclass = In", fillcolor="#e58139ff"] ;
64 -> 66 ;
67 [label="gini = 0.0\nsamples = 1\nvalue = [1, 0]\nclass = In", fillcolor="#e58139ff"] ;
59 -> 67 ;
68 [label="x0_Arizona <= 0.5\ngini = 0.23\nsamples = 142\nvalue = [29, 190]\nclass = Out", fillcolor="#399de5d8"] ;
4 -> 68 ;
69 [label="x0_Maryland <= 0.5\ngini = 0.29\nsamples = 104\nvalue = [29, 133]\nclass = Out", fillcolor="#399de5c7"] ;
68 -> 69 ;
70 [label="gini = 0.0\nsamples = 84\nvalue = [0, 133]\nclass = Out", fillcolor="#399de5ff"] ;
69 -> 70 ;
71 [label="gini = 0.0\nsamples = 20\nvalue = [29, 0]\nclass = In", fillcolor="#e58139ff"] ;
69 -> 71 ;
72 [label="gini = 0.0\nsamples = 38\nvalue = [0, 57]\nclass = Out", fillcolor="#399de5ff"] ;
68 -> 72 ;
73 [label="gini = 0.0\nsamples = 88\nvalue = [0, 164]\nclass = Out", fillcolor="#399de5ff"] ;
3 -> 73 ;
74 [label="gini = 0.0\nsamples = 37\nvalue = [48, 0]\nclass = In", fillcolor="#e58139ff"] ;
2 -> 74 ;
75 [label="stl <= 0.94\ngini = 0.42\nsamples = 66\nvalue = [71, 30]\nclass = In", fillcolor="#e5813993"] ;
1 -> 75 ;
76 [label="x2_C <= 0.5\ngini = 0.47\nsamples = 53\nvalue = [49, 29]\nclass = In", fillcolor="#e5813968"] ;
75 -> 76 ;
77 [label="gini = 0.0\nsamples = 20\nvalue = [0, 29]\nclass = Out", fillcolor="#399de5ff"] ;
76 -> 77 ;
78 [label="gini = 0.0\nsamples = 33\nvalue = [49, 0]\nclass = In", fillcolor="#e58139ff"] ;
76 -> 78 ;
79 [label="fga <= 0.96\ngini = 0.08\nsamples = 13\nvalue = [22, 1]\nclass = In", fillcolor="#e58139f3"] ;
75 -> 79 ;
80 [label="gini = 0.0\nsamples = 12\nvalue = [22, 0]\nclass = In", fillcolor="#e58139ff"] ;
79 -> 80 ;
81 [label="gini = 0.0\nsamples = 1\nvalue = [0, 1]\nclass = Out", fillcolor="#399de5ff"] ;
79 -> 81 ;
82 [label="pf <= 3.55\ngini = 0.25\nsamples = 134\nvalue = [34, 193]\nclass = Out", fillcolor="#399de5d2"] ;
0 -> 82 [labeldistance=2.5, labelangle=-45, headlabel="False"] ;
83 [label="tov <= -0.05\ngini = 0.23\nsamples = 126\nvalue = [29, 187]\nclass = Out", fillcolor="#399de5d7"] ;
82 -> 83 ;
84 [label="x2_F <= 0.5\ngini = 0.02\nsamples = 71\nvalue = [1, 123]\nclass = Out", fillcolor="#399de5fd"] ;
83 -> 84 ;
85 [label="gini = 0.0\nsamples = 42\nvalue = [0, 81]\nclass = Out", fillcolor="#399de5ff"] ;
84 -> 85 ;
86 [label="fta <= -0.0\ngini = 0.05\nsamples = 29\nvalue = [1, 42]\nclass = Out", fillcolor="#399de5f9"] ;
84 -> 86 ;
87 [label="gini = 0.0\nsamples = 24\nvalue = [0, 34]\nclass = Out", fillcolor="#399de5ff"] ;
86 -> 87 ;
88 [label="fgm3 <= 1.03\ngini = 0.2\nsamples = 5\nvalue = [1, 8]\nclass = Out", fillcolor="#399de5df"] ;
86 -> 88 ;
89 [label="gini = 0.0\nsamples = 4\nvalue = [0, 8]\nclass = Out", fillcolor="#399de5ff"] ;
88 -> 89 ;
90 [label="gini = 0.0\nsamples = 1\nvalue = [1, 0]\nclass = In", fillcolor="#e58139ff"] ;
88 -> 90 ;
91 [label="tf <= 1.85\ngini = 0.42\nsamples = 55\nvalue = [28, 64]\nclass = Out", fillcolor="#399de58f"] ;
83 -> 91 ;
92 [label="pts <= 0.4\ngini = 0.41\nsamples = 52\nvalue = [25, 61]\nclass = Out", fillcolor="#399de596"] ;
91 -> 92 ;
93 [label="fta <= -0.38\ngini = 0.49\nsamples = 30\nvalue = [24, 31]\nclass = Out", fillcolor="#399de53a"] ;
92 -> 93 ;
94 [label="x2_F <= 0.5\ngini = 0.45\nsamples = 14\nvalue = [17, 9]\nclass = In", fillcolor="#e5813978"] ;
93 -> 94 ;
95 [label="gini = 0.0\nsamples = 2\nvalue = [0, 5]\nclass = Out", fillcolor="#399de5ff"] ;
94 -> 95 ;
96 [label="tov <= 0.7\ngini = 0.31\nsamples = 12\nvalue = [17, 4]\nclass = In", fillcolor="#e58139c3"] ;
94 -> 96 ;
97 [label="fga <= -0.01\ngini = 0.48\nsamples = 7\nvalue = [6, 4]\nclass = In", fillcolor="#e5813955"] ;
96 -> 97 ;
98 [label="ftm <= 1.36\ngini = 0.38\nsamples = 5\nvalue = [6, 2]\nclass = In", fillcolor="#e58139aa"] ;
97 -> 98 ;
99 [label="gini = 0.0\nsamples = 4\nvalue = [6, 0]\nclass = In", fillcolor="#e58139ff"] ;
98 -> 99 ;
100 [label="gini = 0.0\nsamples = 1\nvalue = [0, 2]\nclass = Out", fillcolor="#399de5ff"] ;
98 -> 100 ;
101 [label="gini = 0.0\nsamples = 2\nvalue = [0, 2]\nclass = Out", fillcolor="#399de5ff"] ;
97 -> 101 ;
102 [label="gini = 0.0\nsamples = 5\nvalue = [11, 0]\nclass = In", fillcolor="#e58139ff"] ;
96 -> 102 ;
103 [label="ast <= -0.23\ngini = 0.37\nsamples = 16\nvalue = [7, 22]\nclass = Out", fillcolor="#399de5ae"] ;
93 -> 103 ;
104 [label="fgm <= -0.33\ngini = 0.48\nsamples = 9\nvalue = [7, 11]\nclass = Out", fillcolor="#399de55d"] ;
103 -> 104 ;
105 [label="tov <= 0.7\ngini = 0.46\nsamples = 5\nvalue = [7, 4]\nclass = In", fillcolor="#e581396d"] ;
104 -> 105 ;
106 [label="fta <= -0.0\ngini = 0.35\nsamples = 4\nvalue = [7, 2]\nclass = In", fillcolor="#e58139b6"] ;
105 -> 106 ;
107 [label="ftm <= 1.1\ngini = 0.48\nsamples = 2\nvalue = [3, 2]\nclass = In", fillcolor="#e5813955"] ;
106 -> 107 ;
108 [label="gini = 0.0\nsamples = 1\nvalue = [0, 2]\nclass = Out", fillcolor="#399de5ff"] ;
107 -> 108 ;
109 [label="gini = 0.0\nsamples = 1\nvalue = [3, 0]\nclass = In", fillcolor="#e58139ff"] ;
107 -> 109 ;
110 [label="gini = 0.0\nsamples = 2\nvalue = [4, 0]\nclass = In", fillcolor="#e58139ff"] ;
106 -> 110 ;
111 [label="gini = 0.0\nsamples = 1\nvalue = [0, 2]\nclass = Out", fillcolor="#399de5ff"] ;
105 -> 111 ;
112 [label="gini = 0.0\nsamples = 4\nvalue = [0, 7]\nclass = Out", fillcolor="#399de5ff"] ;
104 -> 112 ;
113 [label="gini = 0.0\nsamples = 7\nvalue = [0, 11]\nclass = Out", fillcolor="#399de5ff"] ;
103 -> 113 ;
114 [label="division <= -1.09\ngini = 0.06\nsamples = 22\nvalue = [1, 30]\nclass = Out", fillcolor="#399de5f6"] ;
92 -> 114 ;
115 [label="gini = 0.0\nsamples = 1\nvalue = [1, 0]\nclass = In", fillcolor="#e58139ff"] ;
114 -> 115 ;
116 [label="gini = 0.0\nsamples = 21\nvalue = [0, 30]\nclass = Out", fillcolor="#399de5ff"] ;
114 -> 116 ;
117 [label="tov <= 0.45\ngini = 0.5\nsamples = 3\nvalue = [3, 3]\nclass = In", fillcolor="#e5813900"] ;
91 -> 117 ;
118 [label="dreb <= 0.56\ngini = 0.38\nsamples = 2\nvalue = [3, 1]\nclass = In", fillcolor="#e58139aa"] ;
117 -> 118 ;
119 [label="gini = 0.0\nsamples = 1\nvalue = [3, 0]\nclass = In", fillcolor="#e58139ff"] ;
118 -> 119 ;
120 [label="gini = 0.0\nsamples = 1\nvalue = [0, 1]\nclass = Out", fillcolor="#399de5ff"] ;
118 -> 120 ;
121 [label="gini = 0.0\nsamples = 1\nvalue = [0, 2]\nclass = Out", fillcolor="#399de5ff"] ;
117 -> 121 ;
122 [label="fgm <= -0.33\ngini = 0.5\nsamples = 8\nvalue = [5, 6]\nclass = Out", fillcolor="#399de52a"] ;
82 -> 122 ;
123 [label="oreb <= -0.84\ngini = 0.41\nsamples = 5\nvalue = [5, 2]\nclass = In", fillcolor="#e5813999"] ;
122 -> 123 ;
124 [label="gini = 0.0\nsamples = 1\nvalue = [0, 1]\nclass = Out", fillcolor="#399de5ff"] ;
123 -> 124 ;
125 [label="fga3 <= 0.53\ngini = 0.28\nsamples = 4\nvalue = [5, 1]\nclass = In", fillcolor="#e58139cc"] ;
123 -> 125 ;
126 [label="gini = 0.0\nsamples = 3\nvalue = [5, 0]\nclass = In", fillcolor="#e58139ff"] ;
125 -> 126 ;
127 [label="gini = 0.0\nsamples = 1\nvalue = [0, 1]\nclass = Out", fillcolor="#399de5ff"] ;
125 -> 127 ;
128 [label="gini = 0.0\nsamples = 3\nvalue = [0, 4]\nclass = Out", fillcolor="#399de5ff"] ;
122 -> 128 ;
}